<?xml version="1.0"?>
<opencv_storage>
<!-- Created using Computer Vision System Toolbox(tm) for MATLAB(R) -->
<!-- Version 9.2.0.538062 (R2017a) -->
<!-- Compatible with OpenCV 3.1 -->
<cascade>
  <stageType>BOOST</stageType>
  <featureType>HOG</featureType>
  <height>40</height>
  <width>32</width>
  <stageParams>
    <boostType>GAB</boostType>
    <minHitRate>9.9500000476837158e-01</minHitRate>
    <maxFalseAlarm>1.0000000149011612e-01</maxFalseAlarm>
    <weightTrimRate>9.4999999999999996e-01</weightTrimRate>
    <maxDepth>1</maxDepth>
    <maxWeakCount>100</maxWeakCount></stageParams>
  <featureParams>
    <maxCatCount>0</maxCatCount>
    <featSize>36</featSize></featureParams>
  <stageNum>4</stageNum>
  <stages>
    <!-- stage 0 -->
    <_>
      <maxWeakCount>7</maxWeakCount>
      <stageThreshold>-1.0320163965225220e+00</stageThreshold>
      <weakClassifiers>
        <_>
          <internalNodes>
            0 -1 23 3.7840452045202255e-02</internalNodes>
          <leafValues>
            -8.3962261676788330e-01 4.7368422150611877e-01</leafValues></_>
        <_>
          <internalNodes>
            0 -1 22 3.3291611820459366e-02</internalNodes>
          <leafValues>
            -7.3016023635864258e-01 6.5105855464935303e-01</leafValues></_>
        <_>
          <internalNodes>
            0 -1 33 3.6179363727569580e-02</internalNodes>
          <leafValues>
            -7.3619437217712402e-01 5.4613178968429565e-01</leafValues></_>
        <_>
          <internalNodes>
            0 -1 14 1.3357998803257942e-02</internalNodes>
          <leafValues>
            5.6475460529327393e-01 -6.9065231084823608e-01</leafValues></_>
        <_>
          <internalNodes>
            0 -1 17 1.8893875181674957e-02</internalNodes>
          <leafValues>
            4.4043135643005371e-01 -8.3207243680953979e-01</leafValues></_>
        <_>
          <internalNodes>
            0 -1 30 4.3755143880844116e-02</internalNodes>
          <leafValues>
            -5.3814148902893066e-01 7.4363601207733154e-01</leafValues></_>
        <_>
          <internalNodes>
            0 -1 26 4.6511568129062653e-02</internalNodes>
          <leafValues>
            -5.7430243492126465e-01 7.0638883113861084e-01</leafValues></_></weakClassifiers></_>
    <!-- stage 1 -->
    <_>
      <maxWeakCount>9</maxWeakCount>
      <stageThreshold>-7.7355694770812988e-01</stageThreshold>
      <weakClassifiers>
        <_>
          <internalNodes>
            0 -1 20 4.0049858391284943e-02</internalNodes>
          <leafValues>
            -6.9599997997283936e-01 6.2105262279510498e-01</leafValues></_>
        <_>
          <internalNodes>
            0 -1 31 2.4183591827750206e-02</internalNodes>
          <leafValues>
            -9.4182389974594116e-01 3.5865533351898193e-01</leafValues></_>
        <_>
          <internalNodes>
            0 -1 3 3.0254993587732315e-02</internalNodes>
          <leafValues>
            -8.4715956449508667e-01 3.8155171275138855e-01</leafValues></_>
        <_>
          <internalNodes>
            0 -1 5 1.7160722985863686e-02</internalNodes>
          <leafValues>
            -7.5130218267440796e-01 5.0220757722854614e-01</leafValues></_>
        <_>
          <internalNodes>
            0 -1 9 2.8401918709278107e-02</internalNodes>
          <leafValues>
            -6.5490502119064331e-01 5.2460980415344238e-01</leafValues></_>
        <_>
          <internalNodes>
            0 -1 21 2.9577072709798813e-02</internalNodes>
          <leafValues>
            -7.5021535158157349e-01 4.3250578641891479e-01</leafValues></_>
        <_>
          <internalNodes>
            0 -1 15 1.7467610538005829e-02</internalNodes>
          <leafValues>
            -6.6792577505111694e-01 4.8145243525505066e-01</leafValues></_>
        <_>
          <internalNodes>
            0 -1 24 3.3971969038248062e-02</internalNodes>
          <leafValues>
            -7.0598053932189941e-01 5.2714055776596069e-01</leafValues></_>
        <_>
          <internalNodes>
            0 -1 27 1.2861391529440880e-02</internalNodes>
          <leafValues>
            -9.5369035005569458e-01 3.4369215369224548e-01</leafValues></_></weakClassifiers></_>
    <!-- stage 2 -->
    <_>
      <maxWeakCount>9</maxWeakCount>
      <stageThreshold>-2.6083755493164063e-01</stageThreshold>
      <weakClassifiers>
        <_>
          <internalNodes>
            0 -1 34 1.0114979930222034e-02</internalNodes>
          <leafValues>
            3.4814813733100891e-01 -7.7142858505249023e-01</leafValues></_>
        <_>
          <internalNodes>
            0 -1 30 3.5543005913496017e-02</internalNodes>
          <leafValues>
            -6.9709134101867676e-01 4.1034480929374695e-01</leafValues></_>
        <_>
          <internalNodes>
            0 -1 8 3.5341288894414902e-02</internalNodes>
          <leafValues>
            -5.8875757455825806e-01 5.7264262437820435e-01</leafValues></_>
        <_>
          <internalNodes>
            0 -1 10 5.6189853698015213e-02</internalNodes>
          <leafValues>
            -4.3944022059440613e-01 6.4890336990356445e-01</leafValues></_>
        <_>
          <internalNodes>
            0 -1 1 1.5742948278784752e-02</internalNodes>
          <leafValues>
            4.5632103085517883e-01 -6.8572604656219482e-01</leafValues></_>
        <_>
          <internalNodes>
            0 -1 29 1.6398452222347260e-02</internalNodes>
          <leafValues>
            -8.2675433158874512e-01 2.8456631302833557e-01</leafValues></_>
        <_>
          <internalNodes>
            0 -1 18 4.9821089953184128e-02</internalNodes>
          <leafValues>
            -4.6912994980812073e-01 5.9677410125732422e-01</leafValues></_>
        <_>
          <internalNodes>
            0 -1 19 3.1531371176242828e-02</internalNodes>
          <leafValues>
            -5.3125065565109253e-01 5.2262043952941895e-01</leafValues></_>
        <_>
          <internalNodes>
            0 -1 2 1.9411908462643623e-02</internalNodes>
          <leafValues>
            -7.2311520576477051e-01 3.7573665380477905e-01</leafValues></_></weakClassifiers></_>
    <!-- stage 3 -->
    <_>
      <maxWeakCount>11</maxWeakCount>
      <stageThreshold>-3.4897527098655701e-01</stageThreshold>
      <weakClassifiers>
        <_>
          <internalNodes>
            0 -1 16 3.7427365779876709e-02</internalNodes>
          <leafValues>
            -6.1764705181121826e-01 4.0157479047775269e-01</leafValues></_>
        <_>
          <internalNodes>
            0 -1 12 3.1946323812007904e-02</internalNodes>
          <leafValues>
            -5.3463631868362427e-01 4.8498791456222534e-01</leafValues></_>
        <_>
          <internalNodes>
            0 -1 25 2.8099641203880310e-02</internalNodes>
          <leafValues>
            2.6367783546447754e-01 -8.3551275730133057e-01</leafValues></_>
        <_>
          <internalNodes>
            0 -1 28 1.9851826131343842e-02</internalNodes>
          <leafValues>
            -6.8678212165832520e-01 3.0657336115837097e-01</leafValues></_>
        <_>
          <internalNodes>
            0 -1 32 1.1835486628115177e-02</internalNodes>
          <leafValues>
            6.1514055728912354e-01 -4.2956647276878357e-01</leafValues></_>
        <_>
          <internalNodes>
            0 -1 4 3.2899603247642517e-02</internalNodes>
          <leafValues>
            -3.8482230901718140e-01 6.2354129552841187e-01</leafValues></_>
        <_>
          <internalNodes>
            0 -1 6 1.6077132895588875e-02</internalNodes>
          <leafValues>
            -5.7566416263580322e-01 3.9220711588859558e-01</leafValues></_>
        <_>
          <internalNodes>
            0 -1 13 1.3725467026233673e-02</internalNodes>
          <leafValues>
            3.9472436904907227e-01 -6.3177073001861572e-01</leafValues></_>
        <_>
          <internalNodes>
            0 -1 11 1.4373165555298328e-02</internalNodes>
          <leafValues>
            -7.7476441860198975e-01 3.0008473992347717e-01</leafValues></_>
        <_>
          <internalNodes>
            0 -1 0 5.8002971112728119e-02</internalNodes>
          <leafValues>
            -4.0432506799697876e-01 5.8734405040740967e-01</leafValues></_>
        <_>
          <internalNodes>
            0 -1 7 1.0379919782280922e-02</internalNodes>
          <leafValues>
            -7.3559761047363281e-01 3.5701969265937805e-01</leafValues></_></weakClassifiers></_></stages>
  <features>
    <_>
      <rect>
        0 0 8 8 1</rect></_>
    <_>
      <rect>
        0 0 8 8 6</rect></_>
    <_>
      <rect>
        0 0 8 8 30</rect></_>
    <_>
      <rect>
        0 24 8 8 7</rect></_>
    <_>
      <rect>
        4 0 8 8 12</rect></_>
    <_>
      <rect>
        4 4 8 8 21</rect></_>
    <_>
      <rect>
        4 4 8 8 28</rect></_>
    <_>
      <rect>
        4 12 8 8 35</rect></_>
    <_>
      <rect>
        4 16 8 8 30</rect></_>
    <_>
      <rect>
        4 24 8 8 12</rect></_>
    <_>
      <rect>
        4 24 8 8 24</rect></_>
    <_>
      <rect>
        8 20 8 8 24</rect></_>
    <_>
      <rect>
        8 24 8 8 29</rect></_>
    <_>
      <rect>
        8 24 8 8 34</rect></_>
    <_>
      <rect>
        12 0 8 8 8</rect></_>
    <_>
      <rect>
        12 0 8 8 30</rect></_>
    <_>
      <rect>
        12 24 8 8 4</rect></_>
    <_>
      <rect>
        12 24 8 8 26</rect></_>
    <_>
      <rect>
        12 24 8 8 28</rect></_>
    <_>
      <rect>
        16 0 8 8 15</rect></_>
    <_>
      <rect>
        16 0 8 8 21</rect></_>
    <_>
      <rect>
        16 24 8 8 9</rect></_>
    <_>
      <rect>
        0 0 8 16 0</rect></_>
    <_>
      <rect>
        0 4 8 16 25</rect></_>
    <_>
      <rect>
        0 8 8 16 8</rect></_>
    <_>
      <rect>
        4 4 8 16 21</rect></_>
    <_>
      <rect>
        4 8 8 16 24</rect></_>
    <_>
      <rect>
        4 8 8 16 32</rect></_>
    <_>
      <rect>
        12 4 8 16 12</rect></_>
    <_>
      <rect>
        12 4 8 16 14</rect></_>
    <_>
      <rect>
        16 0 8 16 16</rect></_>
    <_>
      <rect>
        16 4 8 16 27</rect></_>
    <_>
      <rect>
        16 4 8 16 31</rect></_>
    <_>
      <rect>
        16 8 8 16 27</rect></_>
    <_>
      <rect>
        0 0 16 8 10</rect></_></features></cascade>
</opencv_storage>
